cnn1.weight
tensor([[[[-0.1552, -1.5892, -1.4030],
          [ 0.7387, -0.6188, -0.2291],
          [ 0.6840,  1.7093,  1.2374]]],


        [[[ 2.9713,  1.8625,  0.7104],
          [ 1.7667,  0.3682,  0.7768],
          [ 0.2018, -0.0494,  0.0713]]],


        [[[ 0.8434,  0.6965,  0.6157],
          [-0.9713,  0.6163,  0.0070],
          [ 0.7122,  0.9946,  1.7027]]],


        [[[ 1.4453, -0.8497, -1.8522],
          [ 1.8171,  0.1701, -2.1512],
          [ 0.9111,  1.7062, -0.4916]]]])
cnn1.bias
tensor([-0.0770,  0.0230, -0.0263, -0.3626])
cnn2.weight
tensor([[[[ 1.6668e+00,  4.0573e-02, -1.7494e-01],
          [ 6.4909e-01, -8.9866e-01, -6.7957e-01],
          [ 4.7733e-01, -1.5891e+00,  2.1699e+00]],

         [[-4.1872e-01, -1.0789e-01,  1.1632e-01],
          [ 1.1532e+00,  1.7145e-01, -3.0470e-02],
          [-1.1479e-01, -1.1646e-01,  4.3349e-01]],

         [[-5.9086e-01, -3.7536e-01,  8.7902e-02],
          [ 5.5081e-01,  3.4715e-01,  1.8320e-01],
          [-1.4742e-01,  1.0126e-03,  1.7702e-01]],

         [[ 7.5323e-01, -2.1046e-01,  3.8243e-01],
          [-1.6212e-01,  1.6566e-01,  9.1936e-01],
          [ 1.0895e+00,  8.2309e-01,  6.5972e-01]]],


        [[[ 5.9141e-01,  8.3295e-01,  4.2708e-02],
          [-9.6183e-01,  2.9999e-01, -2.7382e-01],
          [-7.6016e-01,  7.0507e-02, -1.0213e+00]],

         [[-3.8863e+00, -3.0150e-01, -1.7093e+00],
          [-4.1823e-01,  7.1424e-01, -9.7742e-02],
          [-7.9602e-03,  1.2350e+00,  4.8943e-01]],

         [[-1.5092e+00, -2.2461e-01, -1.1731e+00],
          [ 2.9432e-01,  2.5763e-01,  3.8417e-03],
          [ 9.9924e-01,  1.3761e+00,  8.4126e-02]],

         [[ 2.0401e-01, -2.2685e-01,  1.0830e-02],
          [ 7.1817e-01, -2.8002e-01,  5.3787e-01],
          [ 1.0838e+00,  4.1530e-01,  6.4145e-01]]],


        [[[-2.4613e+00, -2.6506e-01, -2.6835e+00],
          [-2.4915e+00,  3.6192e-01, -4.1760e-01],
          [-2.4848e+00, -5.2204e-01, -1.7643e+00]],

         [[ 2.2605e-01, -1.2910e-01, -7.3179e-01],
          [ 1.3975e+00, -7.4047e-01, -4.7097e-01],
          [ 1.3547e+00, -5.7590e-01, -7.7844e-01]],

         [[ 1.0162e-01,  5.6916e-01, -2.0635e+00],
          [ 4.1811e-01, -5.6486e-01, -9.3937e-01],
          [ 1.0167e+00,  7.6702e-01, -2.5835e+00]],

         [[-1.9751e-01, -1.0763e+00,  1.6792e+00],
          [ 1.6151e+00,  3.2014e-01, -6.8434e-01],
          [ 1.4426e+00,  8.0443e-01,  2.1242e+00]]],


        [[[ 1.9296e+00, -1.3504e-01,  3.6851e-01],
          [ 7.5492e-01,  4.8940e-01,  8.6649e-01],
          [ 7.2407e-01,  1.3253e+00,  2.6103e+00]],

         [[ 4.2871e-01,  3.6969e-01,  1.5670e-01],
          [-2.0112e-01, -7.5790e-01, -1.3210e-01],
          [-3.1898e-01,  1.1222e-01,  6.7838e-01]],

         [[ 4.9279e-01, -3.4961e-01,  4.6377e-01],
          [-8.5030e-01, -1.0787e+00, -1.6536e-01],
          [ 4.7008e-02,  9.4864e-01,  4.9674e-01]],

         [[-3.0155e+00, -3.4046e-01, -5.8752e-01],
          [ 4.8732e-02, -5.4375e-01, -8.6306e-01],
          [ 1.7375e+00, -1.0250e-01, -3.0071e-01]]]])
cnn2.bias
tensor([-1.3050,  0.0747,  3.3296, -0.1144])
cnn3.weight
tensor([[[[ 4.1879e-01, -1.0672e-01,  4.2610e-01],
          [ 1.4039e-01, -7.5908e-01,  7.9442e-03],
          [ 8.1607e-01, -1.7279e-01, -4.0828e-02]],

         [[-2.1223e-01,  3.7723e-01,  2.8926e-01],
          [ 3.4830e-01,  6.8457e-01, -1.1044e+00],
          [-4.5754e-01,  1.7181e+00, -1.4476e+00]],

         [[-3.0712e-01, -7.2528e-02, -1.2197e+01],
          [-1.6405e-01,  1.1089e+00, -2.7614e+00],
          [ 2.0892e+00, -2.4243e+00, -4.3090e-01]],

         [[-8.2367e-02,  4.1287e-01, -5.0822e-01],
          [ 4.9663e-01, -4.3421e-01, -7.7524e-01],
          [ 8.7369e-02, -1.8309e-01, -1.3029e+00]]],


        [[[ 1.0434e-01, -5.4783e-01, -1.3301e+00],
          [-2.6067e-01, -1.4090e+00, -1.5539e+00],
          [-5.3946e-02,  6.0703e-01, -1.0886e+00]],

         [[ 2.3051e+00, -1.8432e+00,  8.1032e-01],
          [-1.5371e+00,  2.0023e+00,  1.9285e+00],
          [-2.9075e+00, -8.0512e-01,  1.5630e+00]],

         [[ 5.2241e-01, -7.9570e-01,  1.0431e+00],
          [ 4.0113e-01, -7.7079e-02,  1.0378e+00],
          [ 3.9351e-01,  2.6708e-01,  8.2923e-01]],

         [[-5.8937e+00, -8.7054e-01, -3.1161e+00],
          [-5.5155e+00,  4.0930e-01, -3.7439e-01],
          [-4.3769e+00, -2.5929e-01,  1.2577e+00]]],


        [[[-7.0142e-03, -1.8932e-01,  5.3731e-01],
          [ 1.2841e-01, -1.6857e-01, -1.4610e-02],
          [-1.3559e-02, -2.9956e-01, -1.0197e+00]],

         [[-6.1916e-02,  4.2597e-01,  1.3235e+00],
          [-4.7870e-01,  1.1337e+00, -2.3020e+00],
          [-3.1649e+00, -3.4135e+00,  3.1591e-02]],

         [[-3.6542e-01,  9.9574e-01,  5.1669e-01],
          [ 2.2611e-01,  1.0732e+00,  7.4875e-01],
          [-9.4651e-01, -1.7849e+00, -1.9659e+00]],

         [[-1.4012e-01,  8.7225e-01, -5.9745e-01],
          [ 1.1210e+00,  3.9115e-02, -3.5132e-01],
          [-5.0181e-02, -3.1008e-01, -4.1367e-02]]],


        [[[-7.1433e-01, -3.5142e-01,  2.8539e-01],
          [-1.6400e+00, -2.2849e-01,  8.0899e-01],
          [-1.4339e+00, -7.4002e-01, -5.5874e-01]],

         [[ 2.5779e-01,  1.1897e-01, -5.3587e-05],
          [-2.3219e+00, -8.2526e-01,  1.4263e-02],
          [ 7.1207e-02, -1.7758e+00, -4.7972e+00]],

         [[-1.4855e+00,  1.4189e-02,  1.3637e+00],
          [ 4.9055e-01, -1.2281e+00,  8.1991e-02],
          [-1.4776e+00,  5.7132e-01,  3.7175e-01]],

         [[ 4.1128e-01,  7.1760e-01,  2.3374e-01],
          [ 1.5830e+00, -1.2872e+00,  3.3033e-01],
          [ 1.2407e+00, -4.7029e-01,  1.2213e+00]]],


        [[[ 1.7968e+00,  1.5389e-01, -1.1346e+00],
          [ 1.0752e+00,  7.7862e-01,  5.9923e-01],
          [-1.8559e+00, -7.7376e-01, -1.6287e-01]],

         [[-2.6962e+00,  4.5830e-01, -2.5966e-01],
          [ 5.4912e-01,  1.9204e+00,  2.1074e+00],
          [-9.2774e-02,  1.0524e+00,  3.9587e-01]],

         [[-1.3183e+00, -8.0146e-01, -1.0173e+00],
          [-2.4078e+00, -3.6956e-01, -2.1499e-01],
          [ 5.7626e-01,  1.4781e+00,  4.4643e-01]],

         [[-8.0368e-01, -6.0126e-01, -2.2149e+00],
          [-4.2785e-01, -7.2853e-01, -2.9733e+00],
          [ 6.8887e-01, -1.1095e-01,  7.1253e-01]]],


        [[[-4.0602e-01, -5.5514e-01, -1.3481e+00],
          [ 6.9019e-02, -5.7085e-01, -9.1304e-01],
          [ 4.4426e-01,  1.0943e+00,  4.6623e-01]],

         [[ 7.3860e-01,  1.0334e+00,  7.1775e-01],
          [-2.6030e+00, -8.9107e-01,  1.0837e+00],
          [-8.4616e-01,  3.6153e-01,  3.1414e-01]],

         [[-8.1004e-01, -1.7398e+00, -1.9762e+00],
          [-7.1262e-01,  4.3338e-01, -1.1845e+00],
          [ 9.5894e-01,  1.1995e+00,  1.3512e+00]],

         [[-3.9196e-01, -8.2281e-01, -8.1778e-01],
          [ 6.1435e-01,  9.2829e-01,  3.6426e-01],
          [-6.8394e-01,  4.3524e-02,  5.3390e-01]]],


        [[[ 7.0210e-01, -5.3462e-01, -4.5061e-01],
          [-6.2044e-02, -1.6942e-01,  7.0533e-02],
          [ 6.9466e-01,  3.5355e-01,  4.3639e-01]],

         [[-5.6788e-01, -3.9080e+00,  8.6595e-01],
          [-1.4915e+00, -6.3350e-01,  4.0905e-01],
          [-5.7834e-01,  9.8118e-01,  3.5805e-01]],

         [[ 5.1962e-01,  5.5578e-01, -3.1807e-01],
          [-1.8443e-02, -9.7462e-01, -2.1714e-01],
          [-6.5271e-01,  1.6724e-01, -1.3812e-01]],

         [[ 9.8735e-02,  1.4618e-01,  1.7766e-01],
          [-4.2072e-01, -1.0026e+00,  2.9446e-01],
          [-3.9998e-01,  7.2013e-02,  7.6840e-02]]],


        [[[ 2.9628e-01,  3.2605e-01,  5.2664e-01],
          [-2.0645e-01, -2.4071e-01, -5.5490e-01],
          [-1.2220e+00, -4.8478e-01, -3.9726e-01]],

         [[ 3.2581e-03, -8.4653e-02, -1.6160e-01],
          [ 5.9363e-01,  7.9224e-01,  1.1373e+00],
          [-3.8029e-01,  9.0478e-01,  4.0379e-01]],

         [[-4.4197e+00, -1.4640e+00,  2.4208e-01],
          [-3.6165e-02, -2.0429e-01, -4.7148e-02],
          [ 9.4827e-01,  6.6460e-01,  8.5673e-01]],

         [[ 1.8424e-01,  1.7165e-01, -5.4270e-01],
          [-2.0067e-01, -3.8267e-01,  5.7992e-01],
          [-2.1400e+00, -2.3334e+00,  1.7844e+00]]],


        [[[-7.1089e-01, -8.6317e-01, -4.2944e-01],
          [ 9.2333e-01,  8.2256e-01, -3.7908e-01],
          [-4.6806e-01,  8.6420e-01,  7.2920e-01]],

         [[-2.7851e-01,  5.2786e-01,  1.1323e-02],
          [-1.3870e+00,  7.9807e-01, -2.6371e-01],
          [-2.2081e+00, -8.8322e-01, -1.1912e+00]],

         [[-2.5855e+00, -1.4545e+00, -8.2675e-01],
          [ 9.3215e-02,  2.4878e-01, -4.9968e-02],
          [ 6.3363e-01,  9.6670e-01,  5.0617e-01]],

         [[-9.4902e-01,  1.4615e-01,  2.6962e-01],
          [-3.4838e-01,  1.4024e+00, -8.6166e-02],
          [-7.4064e-01, -3.2143e-01,  7.5405e-01]]],


        [[[ 1.0036e+00,  6.7024e-01,  4.7606e-01],
          [-7.2557e-01, -3.2638e-01,  5.8813e-02],
          [-1.4102e+00, -8.7018e-01,  2.1413e-01]],

         [[-1.4507e+00, -6.4879e-01, -2.6240e-01],
          [-4.8310e+00, -1.6908e+00, -8.6341e-01],
          [-1.6922e-02,  1.5218e+00,  1.0167e+00]],

         [[-2.7574e-01, -9.2683e-01,  2.0489e-01],
          [-1.9210e+00,  3.9910e-01, -6.7442e-03],
          [ 7.6937e-01,  1.0391e+00,  5.9468e-01]],

         [[ 8.2559e-01, -3.0956e-01,  8.8566e-01],
          [ 1.1219e-01,  1.6130e-01, -2.2071e+00],
          [-5.4125e-01, -1.9754e-02, -1.9597e-02]]]])
cnn3.bias
tensor([ 1.0116, -0.1021,  0.5878, -0.1906, -0.0076,  0.2821, -0.0963,  1.7038,
         0.0651, -0.7328])

cnn1weight
[[[-10174, -104150, -91946, 48411, -40553, -15014, 44825, 112022, 81093]], [[194725, 122059, 46556, 115785, 24132, 50906, 13227, -3240, 4675]], [[55276, 45645, 40350, -63657, 40389, 455, 46677, 65183, 111589]], [[94716, -55682, -121383, 119082, 11150, -140981, 59706, 111818, -32214]]]
cnn1bias
[-5046, 1505, -1722, -23765]
cnn2weight
[[[109236, 2658, -11465, 42538, -58894, -44536, 31282, -104144, 142203], [-27440, -7070, 7623, 75575, 11236, -1996, -7523, -7632, 28409], [-38722, -24599, 5760, 36098, 22751, 12006, -9661, 66, 11601], [49363, -13792, 25063, -10624, 10856, 60251, 71402, 53942, 43235]], [[38758, 54588, 2798, -63034, 19660, -17945, -49817, 4620, -66929], [-254693, -19759, -112019, -27409, 46808, -6405, -521, 80937, 32075], [-98908, -14719, -76878, 19288, 16883, 251, 65486, 90184, 5513], [13370, -14866, 709, 47066, -18351, 35250, 71029, 27217, 42037]], [[-161305, -17371, -175867, -163285, 23718, -27367, -162841, -34212, -115626], [14814, -8460, -47958, 91586, -48527, -30865, 88780, -37742, -51016], [6659, 37300, -135232, 27401, -37018, -61562, 66630, 50267, -169312], [-12944, -70534, 110047, 105849, 20980, -44848, 94541, 52719, 139212]], [[126461, -8850, 24150, 49474, 32073, 56786, 47452, 86857, 171069], [28095, 24228, 10269, -13180, -49669, -8657, -20904, 7354, 44458], [32295, -22912, 30393, -55724, -70693, -10836, 3080, 62169, 32554], [-197622, -22312, -38503, 3193, -35635, -56561, 113871, -6717, -19707]]]
cnn2bias
[-85527, 4897, 218209, -7496]
cnn3weight
[[[27445, -6993, 27924, 9200, -49747, 520, 53481, -11324, -2675], [-13908, 24722, 18957, 22825, 44864, -72374, -29985, 112600, -94867], [-20127, -4753, -799324, -10751, 72670, -180968, 136917, -158876, -28239], [-5397, 27057, -33306, 32546, -28456, -50805, 5725, -11999, -85384]], 
 [[6837, -35902, -87170, -17083, -92340, -101838, -3535, 39782, -71344], [151064, -120796, 53104, -100737, 131222, 126389, -190547, -52764, 102431], [34236, -52146, 68360, 26288, -5051, 68014, 25789, 17503, 54344], [-386249, -57051, -204219, -361466, 26823, -24535, -286846, -16992, 82424]],
 [[-459, -12407, 35213, 8415, -11047, -957, -888, -19631, -66828], [-4057, 27916, 86739, -31371, 74298, -150861, -207417, -223709, 2070], [-23948, 65256, 33861, 14818, 70334, 49070, -62030, -116974, -128838], [-9182, 57163, -39154, 73464, 2563, -23024, -3288, -20321, -2711]],
 [[-46814, -23030, 18703, -107481, -14974, 53018, -93971, -48498, -36617], [16894, 7796, -3, -152165, -54084, 934, 4666, -116377, -314391], [-97352, 929, 89372, 32148, -80481, 5373, -96838, 37442, 24363], [26953, 47028, 15318, 103743, -84358, 21648, 81310, -30820, 80037]], 
 [[117757, 10085, -74359, 70461, 51027, 39271, -121631, -50709, -10673], [-176696, 30034, -17017, 35986, 125853, 138111, -6080, 68971, 25943], [-86398, -52524, -66667, -157794, -24219, -14089, 37765, 96870, 29257], [-52670, -39404, -145157, -28039, -47745, -194856, 45145, -7271, 46696]], 
 [[-26608, -36381, -88346, 4523, -37411, -59836, 29115, 71715, 30554], [48404, 67727, 47038, -170590, -58397, 71024, -55454, 23693, 20587], [-53086, -114017, -129511, -46702, 28401, -77629, 62845, 78610, 88550], [-25687, -53923, -53593, 40262, 60836, 23871, -44822, 2852, 34989]], 
 [[46012, -35037, -29531, -4066, -11103, 4622, 45525, 23170, 28599], [-37216, -256115, 56751, -97745, -41517, 26807, -37902, 64302, 23465], [34053, 36423, -20844, -1208, -63872, -14230, -42776, 10960, -9052], [6470, 9580, 11642, -27572, -65703, 19297, -26212, 4719, 5035]], 
 [[19416, 21368, 34514, -13529, -15774, -36366, -80087, -31770, -26035], [213, -5547, -10590, 38904, 51920, 74534, -24922, 59295, 26462], [-289650, -95942, 15864, -2370, -13388, -3089, 62145, 43555, 56146], [12074, 11249, -35566, -13151, -25078, 38005, -140248, -152920, 116939]], 
 [[-46588, -56568, -28143, 60511, 53907, -24843, -30674, 56636, 47789], [-18252, 34593, 742, -90898, 52302, -17282, -144709, -57882, -78067], [-169443, -95324, -54182, 6108, 16304, -3274, 41525, 63353, 33172], [-62194, 9578, 17669, -22831, 91909, -5646, -48538, -21065, 49417]], 
 [[65769, 43924, 31199, -47551, -21389, 3854, -92421, -57028, 14033], [-95071, -42518, -17196, -316607, -110805, -56584, -1109, 99731, 66631], [-18071, -60740, 13427, -125892, 26155, -441, 50421, 68100, 38973], [54105, -20287, 58042, 7352, 10570, -144641, -35471, -1294, -1284]]]
cnn3bias
[66299, -6688, 38521, -12491, -495, 18486, -6314, 111662, 4264, -48027]